b'UNK' -0.07903 0.01641 0.006979 -0.035038 0.006474 0.002469 -0.050103 0.142654 -0.03505 0.003106 -0.021312 0.094076 -0.018255 -0.098097 0.087143 0.105799 0.008606 -0.001315 0.069005 0.062015 0.019944 -0.007749 -0.007412 0.050015 -0.083615 0.007712 0.033161 0.017965 -0.06154 -0.017696 0.061967 0.053028 0.038143 -0.07057 0.01561 0.019588 -0.041708 0.034371 -0.066838 -0.059769 0.075711 -0.114826 0.014009 0.050187 -0.01899 -0.076014 -0.052502 0.086082 0.049812 0.008456 -0.01283 0.039918 -0.001924 -0.003752 0.031073 0.034325 0.040086 0.078946 -0.012194 0.056323 0.126129 -0.024503 0.026304 -0.074797 -0.098972 0.003672 0.051386 -0.017574 -0.050253 -0.07677 0.004362 -0.069935 -0.048108 0.020127 0.007066 -0.024247 0.041911 0.03377 -0.011906 -0.0168 -0.00355 -0.003168 0.05164 -0.055769 0.01488 -6e-06 0.094575 -0.066246 -0.111004 -0.031954 0.006958 0.005259 0.15825 0.102919 0.010383 -0.064236 -0.037729 -0.031751 -0.069492 -0.004198 -0.034654 -0.060518 -0.046611 -0.048463 -0.010096 -0.057894 -0.046687 0.062827 0.016907 0.096869 -0.036037 -0.106403 0.056466 0.095621 -0.046383 0.090213 -0.019204 -0.116271 -0.00824 -0.017732 0.037387 -0.021405 -0.040493 -0.059114 0.12289 0.032563 0.103712 0.072411 -0.106944 -0.110485 -0.027564 0.023977 -0.048099 0.036966 -0.11356 -0.009166 0.074402 0.128162 0.080086 0.112749 0.050494 0.064998 0.089217 0.029182 -0.07277 0.058653 0.061047 -0.05293 -0.01979 0.107459 0.002719 -0.008774 -0.098009 0.009321 0.099869 0.024181 -0.071247 -0.054372 0.019997 0.024442 0.108639 0.053727 -0.089804 0.118491 -0.044407 -0.045336 0.078483 0.059462 -0.012287 0.028941 0.064551 0.066738 0.029614 0.092768 0.021783 -0.018141 -0.032692 0.000178 0.021413 0.044657 -0.041903 0.027439 -0.029112 -0.027419 -0.091497 0.00712 -0.076297 -0.097602 -0.098875 -0.067403 -0.015912 0.055845 0.057585 -0.061145 -0.006828 0.044573 0.049632 0.014541 -0.024579 -0.045455 0.095474 -0.02978 -0.060053 -0.005672 -0.002711 0.059481 -0.060563 0.047562 -0.086001 0.064536 0.196527 -0.105742 -0.019043 0.038534 -0.099681 0.031009 -0.020548 -0.058781 0.064247 0.008213 0.126322 0.029859 0.013129 -0.021303 0.043993 0.033347 0.020245 0.037738 -0.02178 0.027693 -0.07024 0.004687 0.045271 -0.022966 0.014069 0.022861 -0.02787 0.082912 -0.049544 0.016079 -0.004684 0.000572 0.077382 0.036401 0.054974 -0.039538 0.002119 0.034002 -0.008836 -0.014758 0.00959 -0.064647 -0.034766 0.016912 -0.036381 -0.037106 0.073451 -0.098941 -0.092281 -0.018656 0.050538 0.041422 0.041235 0.011248 -0.106058 0.066443 0.083865 0.094636 0.004414 -0.092855 -0.027255 0.005234 0.066584 0.055394 0.023019 -0.001949 -0.066794 -0.064739 0.038924 -0.016647 0.000555 0.02428 0.016469 -0.0467 -0.035343 -0.066789 -0.025929 -0.023397 0.062855 0.020142 -0.047568 0.010299 -0.021509 -0.02826 0.029225 0.01803 0.024336 0.018226 -0.009453 -0.068584
b'der' -0.011639 0.079366 0.069307 -0.067109 0.029474 -0.081375 -0.049847 -0.039874 -0.015595 0.021189 0.057357 0.128028 0.012436 0.051274 0.087798 0.131162 0.041073 0.062172 -0.03835 0.029684 -0.016358 0.056298 0.016047 -0.109412 -0.038504 -0.011593 -0.042222 -0.022946 -0.041338 -0.055095 0.016882 0.075038 0.034139 0.002648 -0.15429 -0.057725 0.005893 -0.119218 -0.005161 0.040176 0.075882 0.013122 -0.075603 0.148128 -0.06409 -0.032359 -0.037652 0.029158 -0.006178 0.063375 0.000101 0.0984 -0.041218 -0.003475 0.011012 0.036598 0.027617 0.017 -0.032841 -0.004794 0.042255 0.025782 -0.061537 0.088528 -0.076791 -0.072076 -0.075982 0.041452 -0.006951 -0.017693 0.061846 0.050133 0.027791 0.024453 0.005406 0.003987 -0.075253 0.117923 0.046908 -0.017506 0.034275 -0.047352 0.00474 -0.01112 0.042701 -0.060837 0.06937 -0.012544 0.003815 -0.082523 0.051013 -0.084275 0.002118 0.058182 -0.059393 -0.092795 -0.007 -0.098295 0.028575 -0.005716 -0.053194 -0.024713 0.01536 -0.112631 0.037213 0.018338 -0.007048 0.016002 0.077921 0.02127 -0.042501 -0.023767 0.07161 0.030264 -0.074188 0.017409 -0.096498 0.038915 0.05537 -0.0508 -0.082496 -0.032367 0.038045 0.034227 0.109087 0.095873 0.095765 0.097817 -0.014245 -0.156552 -0.077906 0.003823 0.006903 0.00645 0.009672 -0.063949 0.089986 0.052378 -0.00099 -0.015398 -0.041393 -0.126487 -0.012334 -0.065908 -0.033329 0.113567 0.01182 -0.069449 -0.049423 0.089407 -0.011501 0.048573 -0.07835 0.06223 0.105548 -0.014569 -0.025049 -0.069218 0.020713 -0.006609 -0.013433 -0.061564 0.00451 0.062435 0.099486 0.014215 -0.035421 -0.02755 0.009806 0.054621 -0.010743 -0.024869 0.119195 0.072206 -0.005683 0.061555 0.070799 0.067738 -0.001302 0.144173 -0.017863 0.074063 0.002539 0.016427 0.034129 0.120228 -0.069655 -0.070719 0.012904 -0.05035 0.032057 0.009186 -0.053789 -0.032722 0.036764 0.01666 -0.045744 -0.052954 -0.016808 0.025603 -0.049365 0.033694 -0.030828 0.038608 -0.005701 0.052115 0.016457 0.061468 -0.040967 0.060376 0.074189 -0.107299 0.066453 0.063437 -0.005173 -0.030286 0.022266 -0.046805 0.029338 -0.052795 0.003458 -0.07457 -0.042049 0.011685 -0.023818 -0.072878 -0.108268 0.063602 -0.000935 -0.104321 -0.091654 0.066952 0.05162 0.068144 -0.076841 -0.025974 0.051177 -0.011236 -0.039637 0.10423 -0.056038 0.030506 0.059849 0.042705 0.073291 -0.144422 0.024823 -0.04524 0.000951 -0.041839 0.072541 -0.051033 0.00138 0.055079 0.035157 0.01593 -0.011656 0.035983 0.010024 0.045992 -0.012767 0.078468 -0.030219 0.037638 -0.033564 0.035604 0.062325 0.076449 0.061545 -0.014153 -0.025176 0.042404 0.0738 0.025014 0.016477 -0.027544 0.103429 -0.018059 0.129736 -0.018949 0.028636 -0.009375 0.010386 0.010802 -0.029545 0.106954 -0.030554 0.019295 0.011914 0.004817 -0.056079 0.026587 -0.069814 0.002745 0.027081 0.025177 0.004848 0.003405 0.128821 -0.10896
b'und' -0.08049 -0.006447 0.066966 -0.065053 -0.077121 0.007604 0.013214 -0.052497 -0.06911 -0.093359 0.006361 0.051271 -0.073657 -0.050818 0.017569 0.025926 0.012985 -0.080597 -0.060481 0.06458 -0.037282 0.021944 0.131693 -0.029636 0.019536 -0.101958 0.025436 0.070664 -0.026586 -0.030563 0.025339 0.007167 -0.043429 0.101849 -0.106582 0.028143 -0.021742 -0.046412 0.035344 0.100975 0.18609 -0.039653 -0.014214 0.073644 -0.070804 -0.112083 0.008002 0.014006 0.047433 0.027199 0.008624 0.031582 -0.011767 0.004699 0.086866 -0.025156 -0.012629 -0.075265 -0.064499 -0.001528 -0.016062 0.020347 -0.049432 -0.017719 -0.015136 0.013602 -0.038532 0.001828 -0.038828 -0.131327 0.01141 -0.019037 -0.115159 -0.019818 0.015501 0.012065 0.052196 0.056676 0.014224 0.02963 0.034328 -0.077708 0.097164 -0.031377 0.071094 -0.024777 0.046169 -0.076804 -0.034788 -0.013307 0.09482 -0.099884 0.012365 0.029632 -0.103845 -0.032997 -0.0028 -0.036964 0.047031 -0.06003 -0.04053 -0.091407 0.02464 -0.046826 0.046563 -0.045457 0.082449 -0.034084 0.103554 0.09637 -0.075944 -0.033202 0.007641 0.097895 -0.034631 0.046111 0.014621 0.028678 0.027558 -0.003361 0.021736 -0.019733 0.007198 -0.069488 0.045742 0.104668 0.037538 0.11836 -0.077019 -0.09377 -0.054717 -0.012711 -0.028775 0.048805 -0.053273 -0.030001 -0.0072 0.002106 0.064407 -0.027098 -0.088642 -0.005436 0.076347 0.000826 -0.005025 0.1315 -0.023494 -0.08128 -0.063728 0.068356 -0.014006 -0.041942 -0.019428 0.09726 0.0029 -0.045223 0.005937 -0.049331 0.054093 -0.05917 0.008054 0.069335 0.005803 0.042244 0.074005 -0.035094 0.028334 0.047074 -0.027992 0.167564 0.060942 0.046127 -0.013683 0.140773 -0.004853 -0.005611 0.083851 -0.056103 -0.011375 0.015811 -0.038058 0.004484 0.024555 -0.089792 -0.070212 0.042723 0.070512 -0.096407 0.021613 -0.027837 -0.013682 0.022048 0.018487 -0.05714 0.045358 0.059218 -0.049298 -0.048988 0.017475 -0.03249 -0.058277 0.077189 -0.028166 -0.043304 -0.081181 0.086588 0.142844 -0.029886 -0.079184 -0.013705 -0.006136 0.006365 0.061614 0.067355 -0.080216 0.060399 0.04033 -0.117632 -0.005475 -0.137708 -0.021568 0.031841 -0.072147 0.065342 -0.039388 0.008771 0.031114 0.070042 -0.091177 0.018268 -0.025421 0.046881 0.083888 0.078551 0.017634 4.7e-05 -0.065506 0.020518 0.016705 0.091959 0.055357 -0.057416 0.088072 0.040936 0.045543 -0.045643 0.027497 -0.040627 -0.024701 0.063109 0.005564 -0.05255 0.032659 0.082899 -0.038172 -0.05051 0.091931 0.000338 0.032463 0.047987 0.042939 -0.007787 0.031377 -0.000262 -0.079962 0.041753 0.151614 0.061983 -0.025559 0.079152 0.022881 -0.020966 -0.02663 0.016883 0.052839 0.080401 0.066764 -0.000789 -0.004411 0.042816 0.046996 0.055364 0.007022 -0.067441 0.013902 0.001202 -0.062707 0.010281 0.08432 0.01486 -0.061618 0.022113 -0.009829 0.015612 -0.065838 -0.094154 0.026413 0.060649 0.07567 0.005756